{"learner":{"attributes":{},"feature_names":[],"feature_types":[],"gradient_booster":{"model":{"gbtree_model_param":{"num_parallel_tree":"1","num_trees":"40"},"iteration_indptr":[0,2,4,6,8,10,12,14,16,18,20,22,24,26,28,30,32,34,36,38,40],"tree_info":[0,1,0,1,0,1,0,1,0,1,0,1,0,1,0,1,0,1,0,1,0,1,0,1,0,1,0,1,0,1,0,1,0,1,0,1,0,1,0,1],"trees":[{"base_weights":[3.774319E-1,8.303917E-1,-6.54902E-1,9.1576976E-1,-1.4893617E-1,-3.726415E-1,-8.528428E-1,2.7797648E-1,-2.5714287E-1,-9.31677E-3,-2.3793104E-1,2.0000002E-1,-1.1571429E-1,-2.0000002E-1,-2.7333334E-1],"categories":[],"categories_nodes":[],"categories_segments":[],"categories_sizes":[],"default_left":[0,0,0,0,0,0,0,0,0,0,0,0,0,0,0],"id":0,"left_children":[1,3,5,7,9,11,13,-1,-1,-1,-1,-1,-1,-1,-1],"loss_changes":[7.8167926E2,9.725299E1,2.817633E1,2.1288269E1,7.1132226E0,3.1375122E0,2.6361847E0,0E0,0E0,0E0,0E0,0E0,0E0,0E0,0E0],"parents":[2147483647,0,0,1,1,2,2,3,3,4,4,5,5,6,6],"right_children":[2,4,6,8,10,12,14,-1,-1,-1,-1,-1,-1,-1,-1],"split_conditions":[3.826393E-1,6.2118876E-1,9.1273725E-1,5.812164E0,1.188549E0,-1.9538407E0,1.2259771E0,2.7797648E-1,-2.5714287E-1,-9.31677E-3,-2.3793104E-1,2.0000002E-1,-1.1571429E-1,-2.0000002E-1,-2.7333334E-1],"split_indices":[7,8,7,4,8,10,7,0,0,0,0,0,0,0,0],"split_type":[0,0,0,0,0,0,0,0,0,0,0,0,0,0,0],"sum_hessian":[1.6695E3,1.1605E3,5.09E2,1.0675E3,9.3E1,2.11E2,2.98E2,1.0615E3,6E0,7.95E1,1.35E1,2E0,2.09E2,7.4E1,2.24E2],"tree_param":{"num_deleted":"0","num_feature":"12","num_nodes":"15","size_leaf_vector":"1"}},{"base_weights":[-3.774319E-1,-8.303917E-1,6.54902E-1,-9.1576976E-1,1.4893617E-1,3.726415E-1,8.528428E-1,-2.7797648E-1,2.5714287E-1,9.31677E-3,2.3793104E-1,-2.0000002E-1,1.1571429E-1,2.0000002E-1,2.7333334E-1],"categories":[],"categories_nodes":[],"categories_segments":[],"categories_sizes":[],"default_left":[0,0,0,0,0,0,0,0,0,0,0,0,0,0,0],"id":1,"left_children":[1,3,5,7,9,11,13,-1,-1,-1,-1,-1,-1,-1,-1],"loss_changes":[7.8167926E2,9.725299E1,2.817633E1,2.1288269E1,7.1132226E0,3.1375122E0,2.6361847E0,0E0,0E0,0E0,0E0,0E0,0E0,0E0,0E0],"parents":[2147483647,0,0,1,1,2,2,3,3,4,4,5,5,6,6],"right_children":[2,4,6,8,10,12,14,-1,-1,-1,-1,-1,-1,-1,-1],"split_conditions":[3.826393E-1,6.2118876E-1,9.1273725E-1,5.812164E0,1.188549E0,-1.9538407E0,1.2259771E0,-2.7797648E-1,2.5714287E-1,9.31677E-3,2.3793104E-1,-2.0000002E-1,1.1571429E-1,2.0000002E-1,2.7333334E-1],"split_indices":[7,8,7,4,8,10,7,0,0,0,0,0,0,0,0],"split_type":[0,0,0,0,0,0,0,0,0,0,0,0,0,0,0],"sum_hessian":[1.6695E3,1.1605E3,5.09E2,1.0675E3,9.3E1,2.11E2,2.98E2,1.0615E3,6E0,7.95E1,1.35E1,2E0,2.09E2,7.4E1,2.24E2],"tree_param":{"num_deleted":"0","num_feature":"12","num_nodes":"15","size_leaf_vector":"1"}},{"base_weights":[2.8427643E-1,6.309924E-1,-4.816479E-1,7.0008934E-1,-1.0837327E-1,-1.9709148E-1,-6.083102E-1,2.1259762E-1,-2.0348297E-1,1.5146733E-2,-1.1694411E-1,-9.1870636E-2,-6.095382E-3,-1.3948157E-1,-2.0843425E-1],"categories":[],"categories_nodes":[],"categories_segments":[],"categories_sizes":[],"default_left":[0,0,0,0,0,0,0,0,0,0,0,0,0,0,0],"id":2,"left_children":[1,3,5,7,9,11,13,-1,-1,-1,-1,-1,-1,-1,-1],"loss_changes":[4.1715897E2,5.530243E1,1.7530869E1,1.2159607E1,4.18922E0,2.9326267E0,3.8722305E0,0E0,0E0,0E0,0E0,0E0,0E0,0E0,0E0],"parents":[2147483647,0,0,1,1,2,2,3,3,4,4,5,5,6,6],"right_children":[2,4,6,8,10,12,14,-1,-1,-1,-1,-1,-1,-1,-1],"split_conditions":[3.585439E-1,6.2118876E-1,7.4406976E-1,5.812164E0,9.2669046E-1,2.8673744E-1,1.2259771E0,2.1259762E-1,-2.0348297E-1,1.5146733E-2,-1.1694411E-1,-9.1870636E-2,-6.095382E-3,-1.3948157E-1,-2.0843425E-1],"split_indices":[7,8,7,4,8,10,7,0,0,0,0,0,0,0,0],"split_type":[0,0,0,0,0,0,0,0,0,0,0,0,0,0,0],"sum_hessian":[1.5687312E3,1.0800115E3,4.887197E2,9.877547E2,9.225679E1,1.5132121E2,3.3739847E2,9.821346E2,5.62012E0,5.949483E1,3.276196E1,9.310422E1,5.8217E1,1.2933418E2,2.080643E2],"tree_param":{"num_deleted":"0","num_feature":"12","num_nodes":"15","size_leaf_vector":"1"}},{"base_weights":[-2.8427643E-1,-6.309924E-1,4.816479E-1,-7.0008934E-1,1.08373284E-1,1.970914E-1,6.083103E-1,-2.1259762E-1,2.0348297E-1,-1.5146723E-2,1.1694411E-1,9.187061E-2,6.095357E-3,1.3948157E-1,2.0843427E-1],"categories":[],"categories_nodes":[],"categories_segments":[],"categories_sizes":[],"default_left":[0,0,0,0,0,0,0,0,0,0,0,0,0,0,0],"id":3,"left_children":[1,3,5,7,9,11,13,-1,-1,-1,-1,-1,-1,-1,-1],"loss_changes":[4.1715897E2,5.530243E1,1.7530876E1,1.2159607E1,4.1892195E0,2.9326272E0,3.8722382E0,0E0,0E0,0E0,0E0,0E0,0E0,0E0,0E0],"parents":[2147483647,0,0,1,1,2,2,3,3,4,4,5,5,6,6],"right_children":[2,4,6,8,10,12,14,-1,-1,-1,-1,-1,-1,-1,-1],"split_conditions":[3.585439E-1,6.2118876E-1,7.4406976E-1,5.812164E0,9.2669046E-1,2.8673744E-1,1.2259771E0,-2.1259762E-1,2.0348297E-1,-1.5146723E-2,1.1694411E-1,9.187061E-2,6.095357E-3,1.3948157E-1,2.0843427E-1],"split_indices":[7,8,7,4,8,10,7,0,0,0,0,0,0,0,0],"split_type":[0,0,0,0,0,0,0,0,0,0,0,0,0,0,0],"sum_hessian":[1.5687312E3,1.0800115E3,4.887197E2,9.877547E2,9.22568E1,1.5132121E2,3.3739847E2,9.821346E2,5.6201205E0,5.9494835E1,3.276196E1,9.310422E1,5.8217E1,1.2933418E2,2.080643E2],"tree_param":{"num_deleted":"0","num_feature":"12","num_nodes":"15","size_leaf_vector":"1"}},{"base_weights":[2.324152E-1,5.2337706E-1,-3.7705553E-1,5.881295E-1,-7.8549795E-2,-1.879386E-1,-5.2868855E-1,1.7867677E-1,-1.7408492E-1,5.127207E-2,-7.5327635E-2,-4.138886E-2,-1.5220419E-1,-6.74353E-2,-1.665582E-1],"categories":[],"categories_nodes":[],"categories_segments":[],"categories_sizes":[],"default_left":[0,0,0,0,0,0,0,0,0,0,0,0,0,0,0],"id":4,"left_children":[1,3,5,7,9,11,13,-1,-1,-1,-1,-1,-1,-1,-1],"loss_changes":[2.4618207E2,3.665744E1,1.2771011E1,7.7386475E0,4.007735E0,3.1428633E0,1.8772354E0,0E0,0E0,0E0,0E0,0E0,0E0,0E0,0E0],"parents":[2147483647,0,0,1,1,2,2,3,3,4,4,5,5,6,6],"right_children":[2,4,6,8,10,12,14,-1,-1,-1,-1,-1,-1,-1,-1],"split_conditions":[3.826393E-1,6.2118876E-1,8.886419E-1,5.812164E0,1.1675005E0,1.2758353E0,1.0185351E-2,1.7867677E-1,-1.7408492E-1,5.127207E-2,-7.5327635E-2,-4.138886E-2,-1.5220419E-1,-6.74353E-2,-1.665582E-1],"split_indices":[7,8,7,4,0,8,8,0,0,0,0,0,0,0,0],"split_type":[0,0,0,0,0,0,0,0,0,0,0,0,0,0,0],"sum_hessian":[1.3861366E3,9.383221E2,4.478145E2,8.4720654E2,9.111554E1,2.0027309E2,2.4754143E2,8.4231903E2,4.887532E0,3.7258198E1,5.3857346E1,1.7441542E2,2.585768E1,2.0618305E1,2.2692313E2],"tree_param":{"num_deleted":"0","num_feature":"12","num_nodes":"15","size_leaf_vector":"1"}},{"base_weights":[-2.3241518E-1,-5.2337706E-1,3.7705553E-1,-5.881295E-1,7.854975E-2,1.879386E-1,5.2868855E-1,-1.7867677E-1,1.7408492E-1,-5.1272083E-2,7.532762E-2,4.138886E-2,1.5220419E-1,6.743531E-2,1.665582E-1],"categories":[],"categories_nodes":[],"categories_segments":[],"categories_sizes":[],"default_left":[0,0,0,0,0,0,0,0,0,0,0,0,0,0,0],"id":5,"left_children":[1,3,5,7,9,11,13,-1,-1,-1,-1,-1,-1,-1,-1],"loss_changes":[2.4618207E2,3.665744E1,1.2771023E1,7.7386475E0,4.007735E0,3.1428638E0,1.8772278E0,0E0,0E0,0E0,0E0,0E0,0E0,0E0,0E0],"parents":[2147483647,0,0,1,1,2,2,3,3,4,4,5,5,6,6],"right_children":[2,4,6,8,10,12,14,-1,-1,-1,-1,-1,-1,-1,-1],"split_conditions":[3.826393E-1,6.2118876E-1,8.886419E-1,5.812164E0,1.1675005E0,1.2758353E0,1.0185351E-2,-1.7867677E-1,1.7408492E-1,-5.1272083E-2,7.532762E-2,4.138886E-2,1.5220419E-1,6.743531E-2,1.665582E-1],"split_indices":[7,8,7,4,0,8,8,0,0,0,0,0,0,0,0],"split_type":[0,0,0,0,0,0,0,0,0,0,0,0,0,0,0],"sum_hessian":[1.3861366E3,9.383221E2,4.4781454E2,8.4720654E2,9.111554E1,2.0027309E2,2.4754147E2,8.4231903E2,4.8875318E0,3.7258194E1,5.3857346E1,1.744154E2,2.5857677E1,2.0618307E1,2.2692316E2],"tree_param":{"num_deleted":"0","num_feature":"12","num_nodes":"15","size_leaf_vector":"1"}},{"base_weights":[1.9520189E-1,4.7126648E-1,-2.7161407E-1,5.2622896E-1,-2.5589095E-2,-1.4695321E-1,-5.1044863E-1,1.59816E-1,-1.5184313E-1,2.651961E-2,-1.5585259E-1,-2.8049007E-2,-1.3194238E-1,3.721554E-2,-1.5645954E-1],"categories":[],"categories_nodes":[],"categories_segments":[],"categories_sizes":[],"default_left":[0,0,0,0,0,0,0,0,0,0,0,0,0,0,0],"id":6,"left_children":[1,3,5,7,9,11,13,-1,-1,-1,-1,-1,-1,-1,-1],"loss_changes":[1.5513484E2,2.0663834E1,1.3251896E1,4.832535E0,4.340106E0,4.5850534E0,1.141365E0,0E0,0E0,0E0,0E0,0E0,0E0,0E0,0E0],"parents":[2147483647,0,0,1,1,2,2,3,3,4,4,5,5,6,6],"right_children":[2,4,6,8,10,12,14,-1,-1,-1,-1,-1,-1,-1,-1],"split_conditions":[2.6216248E-1,6.2118876E-1,1.2259771E0,5.812164E0,4.1493523E-1,1.3194784E0,-1.7814885E0,1.59816E-1,-1.5184313E-1,2.651961E-2,-1.5585259E-1,-2.8049007E-2,-1.3194238E-1,3.721554E-2,-1.5645954E-1],"split_indices":[7,8,7,4,1,8,10,0,0,0,0,0,0,0,0],"split_type":[0,0,0,0,0,0,0,0,0,0,0,0,0,0,0],"sum_hessian":[1.2018029E3,7.551905E2,4.4661243E2,6.7991833E2,7.527214E1,2.945079E2,1.5210452E2,6.7615106E2,3.7672603E0,6.1825047E1,1.3447089E1,2.5016335E2,4.434456E1,2.4362826E0,1.4966824E2],"tree_param":{"num_deleted":"0","num_feature":"12","num_nodes":"15","size_leaf_vector":"1"}},{"base_weights":[-1.9520196E-1,-4.7126654E-1,2.7161404E-1,-5.26229E-1,2.5589105E-2,1.4695321E-1,5.1044863E-1,-1.59816E-1,1.5184315E-1,-2.6519608E-2,1.5585259E-1,2.8049007E-2,1.3194236E-1,-3.7215564E-2,1.5645954E-1],"categories":[],"categories_nodes":[],"categories_segments":[],"categories_sizes":[],"default_left":[0,0,0,0,0,0,0,0,0,0,0,0,0,0,0],"id":7,"left_children":[1,3,5,7,9,11,13,-1,-1,-1,-1,-1,-1,-1,-1],"loss_changes":[1.5513487E2,2.0663849E1,1.3251892E1,4.8325195E0,4.340106E0,4.5850534E0,1.141365E0,0E0,0E0,0E0,0E0,0E0,0E0,0E0,0E0],"parents":[2147483647,0,0,1,1,2,2,3,3,4,4,5,5,6,6],"right_children":[2,4,6,8,10,12,14,-1,-1,-1,-1,-1,-1,-1,-1],"split_conditions":[2.6216248E-1,6.2118876E-1,1.2259771E0,5.812164E0,4.1493523E-1,1.3194784E0,-1.7814885E0,-1.59816E-1,1.5184315E-1,-2.6519608E-2,1.5585259E-1,2.8049007E-2,1.3194236E-1,-3.7215564E-2,1.5645954E-1],"split_indices":[7,8,7,4,1,8,10,0,0,0,0,0,0,0,0],"split_type":[0,0,0,0,0,0,0,0,0,0,0,0,0,0,0],"sum_hessian":[1.201803E3,7.551906E2,4.4661243E2,6.7991846E2,7.527214E1,2.945079E2,1.521045E2,6.761512E2,3.7672603E0,6.182505E1,1.3447089E1,2.5016335E2,4.4344563E1,2.4362824E0,1.4966823E2],"tree_param":{"num_deleted":"0","num_feature":"12","num_nodes":"15","size_leaf_vector":"1"}},{"base_weights":[1.6420068E-1,4.1837767E-1,-2.0555648E-1,4.7325614E-1,-1.3577766E-2,-1.0222603E-1,-4.481114E-1,1.6404574E-1,1.0838218E-1,2.1896131E-2,-1.1682846E-1,-1.6420102E-2,-1.02810696E-1,-5.5630863E-2,-1.4627767E-1],"categories":[],"categories_nodes":[],"categories_segments":[],"categories_sizes":[],"default_left":[0,0,0,0,0,0,0,0,0,0,0,0,0,0,0],"id":8,"left_children":[1,3,5,7,9,11,13,-1,-1,-1,-1,-1,-1,-1,-1],"loss_changes":[9.82052E1,1.4680519E1,1.0630503E1,4.3272324E0,2.3303752E0,3.407627E0,1.2262459E0,0E0,0E0,0E0,0E0,0E0,0E0,0E0,0E0],"parents":[2147483647,0,0,1,1,2,2,3,3,4,4,5,5,6,6],"right_children":[2,4,6,8,10,12,14,-1,-1,-1,-1,-1,-1,-1,-1],"split_conditions":[2.380671E-1,6.2118876E-1,1.2259771E0,-2.5167325E-1,4.1493523E-1,1.188549E0,-8.4970003E-1,1.6404574E-1,1.0838218E-1,2.1896131E-2,-1.1682846E-1,-1.6420102E-2,-1.02810696E-1,-5.5630863E-2,-1.4627767E-1],"split_indices":[7,8,7,8,1,8,11,0,0,0,0,0,0,0,0],"split_type":[0,0,0,0,0,0,0,0,0,0,0,0,0,0,0],"sum_hessian":[1.0430016E3,6.1802783E2,4.2497372E2,5.4827563E2,6.9752144E1,2.9901306E2,1.2596067E2,3.2855762E2,2.1971805E2,5.7349392E1,1.2402751E1,2.5072438E2,4.8288677E1,1.7202848E1,1.0875782E2],"tree_param":{"num_deleted":"0","num_feature":"12","num_nodes":"15","size_leaf_vector":"1"}},{"base_weights":[-1.642006E-1,-4.183776E-1,2.0555648E-1,-4.7325608E-1,1.3577796E-2,1.0222601E-1,4.481114E-1,-1.6404572E-1,-1.0838215E-1,-2.189612E-2,1.1682846E-1,1.6420096E-2,1.028107E-1,5.563086E-2,1.4627765E-1],"categories":[],"categories_nodes":[],"categories_segments":[],"categories_sizes":[],"default_left":[0,0,0,0,0,0,0,0,0,0,0,0,0,0,0],"id":9,"left_children":[1,3,5,7,9,11,13,-1,-1,-1,-1,-1,-1,-1,-1],"loss_changes":[9.820517E1,1.4680511E1,1.0630501E1,4.3272324E0,2.330375E0,3.4076278E0,1.2262459E0,0E0,0E0,0E0,0E0,0E0,0E0,0E0,0E0],"parents":[2147483647,0,0,1,1,2,2,3,3,4,4,5,5,6,6],"right_children":[2,4,6,8,10,12,14,-1,-1,-1,-1,-1,-1,-1,-1],"split_conditions":[2.380671E-1,6.2118876E-1,1.2259771E0,-2.5167325E-1,4.1493523E-1,1.188549E0,-8.4970003E-1,-1.6404572E-1,-1.0838215E-1,-2.189612E-2,1.1682846E-1,1.6420096E-2,1.028107E-1,5.563086E-2,1.4627765E-1],"split_indices":[7,8,7,8,1,8,11,0,0,0,0,0,0,0,0],"split_type":[0,0,0,0,0,0,0,0,0,0,0,0,0,0,0],"sum_hessian":[1.0430015E3,6.180277E2,4.2497372E2,5.482755E2,6.9752144E1,2.9901306E2,1.2596067E2,3.2855756E2,2.19718E2,5.7349392E1,1.2402752E1,2.5072438E2,4.828868E1,1.7202848E1,1.0875782E2],"tree_param":{"num_deleted":"0","num_feature":"12","num_nodes":"15","size_leaf_vector":"1"}},{"base_weights":[1.3693525E-1,4.0926245E-1,-1.1419548E-1,4.4888446E-1,2.7091207E-3,3.3949025E-2,-2.9068264E-1,1.3711265E-1,-1.4261924E-1,3.89937E-2,-1.713214E-1,1.4857121E-2,-1.8318816E-1,1.0169502E-1,-9.643085E-2],"categories":[],"categories_nodes":[],"categories_segments":[],"categories_sizes":[],"default_left":[0,0,0,0,0,0,0,0,0,0,0,0,0,0,0],"id":10,"left_children":[1,3,5,7,9,11,13,-1,-1,-1,-1,-1,-1,-1,-1],"loss_changes":[6.270838E1,7.0831146E0,1.2493202E1,3.2387695E0,2.9996798E0,2.6450737E0,4.330202E0,0E0,0E0,0E0,0E0,0E0,0E0,0E0,0E0],"parents":[2147483647,0,0,1,1,2,2,3,3,4,4,5,5,6,6],"right_children":[2,4,6,8,10,12,14,-1,-1,-1,-1,-1,-1,-1,-1],"split_conditions":[-2.8865365E-3,6.2118876E-1,7.199744E-1,5.812164E0,2.9779068E-1,5.812164E0,-9.907995E-1,1.3711265E-1,-1.4261924E-1,3.89937E-2,-1.713214E-1,1.4857121E-2,-1.8318816E-1,1.0169502E-1,-9.643085E-2],"split_indices":[7,8,7,4,1,4,1,0,0,0,0,0,0,0,0],"split_type":[0,0,0,0,0,0,0,0,0,0,0,0,0,0,0],"sum_hessian":[9.152435E2,4.3878912E2,4.764544E2,3.9972815E2,3.906098E1,2.594652E2,2.1698918E2,3.9673212E2,2.9960318E0,3.2602837E1,6.4581456E0,2.5424515E2,5.220084E0,9.637736E0,2.0735146E2],"tree_param":{"num_deleted":"0","num_feature":"12","num_nodes":"15","size_leaf_vector":"1"}},{"base_weights":[-1.3693525E-1,-4.0926242E-1,1.14195466E-1,-4.4888446E-1,-2.7091238E-3,-3.394905E-2,2.9068264E-1,-1.3711265E-1,1.4261924E-1,-3.8993705E-2,1.713214E-1,-1.4857129E-2,1.8318814E-1,-1.0169501E-1,9.643085E-2],"categories":[],"categories_nodes":[],"categories_segments":[],"categories_sizes":[],"default_left":[0,0,0,0,0,0,0,0,0,0,0,0,0,0,0],"id":11,"left_children":[1,3,5,7,9,11,13,-1,-1,-1,-1,-1,-1,-1,-1],"loss_changes":[6.2708374E1,7.0831223E0,1.2493204E1,3.2387695E0,2.9996798E0,2.6450734E0,4.330202E0,0E0,0E0,0E0,0E0,0E0,0E0,0E0,0E0],"parents":[2147483647,0,0,1,1,2,2,3,3,4,4,5,5,6,6],"right_children":[2,4,6,8,10,12,14,-1,-1,-1,-1,-1,-1,-1,-1],"split_conditions":[-2.8865365E-3,6.2118876E-1,7.199744E-1,5.812164E0,2.9779068E-1,5.812164E0,-9.907995E-1,-1.3711265E-1,1.4261924E-1,-3.8993705E-2,1.713214E-1,-1.4857129E-2,1.8318814E-1,-1.0169501E-1,9.643085E-2],"split_indices":[7,8,7,4,1,4,1,0,0,0,0,0,0,0,0],"split_type":[0,0,0,0,0,0,0,0,0,0,0,0,0,0,0],"sum_hessian":[9.152435E2,4.3878915E2,4.764544E2,3.9972815E2,3.906098E1,2.594652E2,2.1698918E2,3.9673212E2,2.9960315E0,3.2602837E1,6.4581456E0,2.5424513E2,5.220084E0,9.637737E0,2.0735146E2],"tree_param":{"num_deleted":"0","num_feature":"12","num_nodes":"15","size_leaf_vector":"1"}},{"base_weights":[1.1222509E-1,3.6175966E-1,-8.706094E-2,4.9003202E-1,1.9835888E-1,-9.533438E-3,-3.528682E-1,-6.4147614E-2,1.4840466E-1,6.6910274E-2,-1.9925123E-1,3.1018939E-2,-3.536796E-2,-1.2238131E-2,-1.2157775E-1],"categories":[],"categories_nodes":[],"categories_segments":[],"categories_sizes":[],"default_left":[0,0,0,0,0,0,0,0,0,0,0,0,0,0,0],"id":12,"left_children":[1,3,5,7,9,11,13,-1,-1,-1,-1,-1,-1,-1,-1],"loss_changes":[4.06009E1,7.4993134E0,9.360231E0,7.68116E-1,3.57625E0,4.3294973E0,1.660552E0,0E0,0E0,0E0,0E0,0E0,0E0,0E0,0E0],"parents":[2147483647,0,0,1,1,2,2,3,3,4,4,5,5,6,6],"right_children":[2,4,6,8,10,12,14,-1,-1,-1,-1,-1,-1,-1,-1],"split_conditions":[-2.8865365E-3,-2.5167325E-1,1.188549E0,-2.163785E0,2.9999287E0,5.031161E-1,-7.565104E-1,-6.4147614E-2,1.4840466E-1,6.6910274E-2,-1.9925123E-1,3.1018939E-2,-3.536796E-2,-1.2238131E-2,-1.2157775E-1],"split_indices":[7,8,8,11,3,7,1,0,0,0,0,0,0,0,0],"split_type":[0,0,0,0,0,0,0,0,0,0,0,0,0,0,0],"sum_hessian":[8.148138E2,3.614329E2,4.5338086E2,2.0136166E2,1.6007124E2,3.518061E2,1.0157476E2,1.0263683E0,2.003353E2,1.5634006E2,3.7311802E0,1.7229266E2,1.7951343E2,1.4856779E1,8.671799E1],"tree_param":{"num_deleted":"0","num_feature":"12","num_nodes":"15","size_leaf_vector":"1"}},{"base_weights":[-1.12225056E-1,-3.6175966E-1,8.706101E-2,-4.90032E-1,-1.9835891E-1,9.533496E-3,3.5286826E-1,6.4147614E-2,-1.4840466E-1,-6.691029E-2,1.9925122E-1,-3.101893E-2,3.536798E-2,1.2238148E-2,1.2157776E-1],"categories":[],"categories_nodes":[],"categories_segments":[],"categories_sizes":[],"default_left":[0,0,0,0,0,0,0,0,0,0,0,0,0,0,0],"id":13,"left_children":[1,3,5,7,9,11,13,-1,-1,-1,-1,-1,-1,-1,-1],"loss_changes":[4.0600914E1,7.4993134E0,9.360233E0,7.68116E-1,3.576251E0,4.3294992E0,1.660552E0,0E0,0E0,0E0,0E0,0E0,0E0,0E0,0E0],"parents":[2147483647,0,0,1,1,2,2,3,3,4,4,5,5,6,6],"right_children":[2,4,6,8,10,12,14,-1,-1,-1,-1,-1,-1,-1,-1],"split_conditions":[-2.8865365E-3,-2.5167325E-1,1.188549E0,-2.163785E0,2.9999287E0,5.031161E-1,-7.565104E-1,6.4147614E-2,-1.4840466E-1,-6.691029E-2,1.9925122E-1,-3.101893E-2,3.536798E-2,1.2238148E-2,1.2157776E-1],"split_indices":[7,8,8,11,3,7,1,0,0,0,0,0,0,0,0],"split_type":[0,0,0,0,0,0,0,0,0,0,0,0,0,0,0],"sum_hessian":[8.148138E2,3.6143292E2,4.533809E2,2.0136166E2,1.6007126E2,3.5180612E2,1.0157478E2,1.0263683E0,2.003353E2,1.5634007E2,3.7311807E0,1.7229266E2,1.7951344E2,1.485678E1,8.6718E1],"tree_param":{"num_deleted":"0","num_feature":"12","num_nodes":"15","size_leaf_vector":"1"}},{"base_weights":[9.037017E-2,4.0396208E-1,-2.8900204E-2,4.354577E-1,-1.7804474E-1,2.8190443E-2,-3.0972338E-1,1.4496739E-1,9.8131016E-2,1.04772754E-1,-1.6353579E-1,1.445616E-2,-1.7750666E-1,-5.0076853E-2,-1.291845E-1],"categories":[],"categories_nodes":[],"categories_segments":[],"categories_sizes":[],"default_left":[0,0,0,0,0,0,0,0,0,0,0,0,0,0,0],"id":14,"left_children":[1,3,5,7,9,11,13,-1,-1,-1,-1,-1,-1,-1,-1],"loss_changes":[2.7653728E1,3.8115463E0,8.607617E0,8.4363556E-1,2.351869E0,5.564946E0,1.4938936E0,0E0,0E0,0E0,0E0,0E0,0E0,0E0,0E0],"parents":[2147483647,0,0,1,1,2,2,3,3,4,4,5,5,6,6],"right_children":[2,4,6,8,10,12,14,-1,-1,-1,-1,-1,-1,-1,-1],"split_conditions":[-3.64317E-1,4.0297323E-1,1.188549E0,-3.3895946E-1,1.1675005E0,5.812164E0,-6.124909E-2,1.4496739E-1,9.8131016E-2,1.04772754E-1,-1.6353579E-1,1.445616E-2,-1.7750666E-1,-5.0076853E-2,-1.291845E-1],"split_indices":[7,8,8,8,0,4,11,0,0,0,0,0,0,0,0],"split_type":[0,0,0,0,0,0,0,0,0,0,0,0,0,0,0],"sum_hessian":[7.380484E2,2.0270331E2,5.353451E2,1.9253592E2,1.0167391E1,4.45646E2,8.96991E1,1.3122641E2,6.13095E1,4.192959E0,5.974432E0,4.3261255E2,1.3033434E1,4.221469E1,4.748441E1],"tree_param":{"num_deleted":"0","num_feature":"12","num_nodes":"15","size_leaf_vector":"1"}},{"base_weights":[-9.037015E-2,-4.0396205E-1,2.8900215E-2,-4.354577E-1,1.7804474E-1,-2.8190404E-2,3.0972332E-1,-1.4496739E-1,-9.813099E-2,-1.0477275E-1,1.6353577E-1,-1.4456148E-2,1.7750666E-1,5.0076835E-2,1.2918448E-1],"categories":[],"categories_nodes":[],"categories_segments":[],"categories_sizes":[],"default_left":[0,0,0,0,0,0,0,0,0,0,0,0,0,0,0],"id":15,"left_children":[1,3,5,7,9,11,13,-1,-1,-1,-1,-1,-1,-1,-1],"loss_changes":[2.7653725E1,3.8115425E0,8.607611E0,8.4363556E-1,2.3518684E0,5.5649457E0,1.4938936E0,0E0,0E0,0E0,0E0,0E0,0E0,0E0,0E0],"parents":[2147483647,0,0,1,1,2,2,3,3,4,4,5,5,6,6],"right_children":[2,4,6,8,10,12,14,-1,-1,-1,-1,-1,-1,-1,-1],"split_conditions":[-3.64317E-1,4.0297323E-1,1.188549E0,-3.3895946E-1,1.1675005E0,5.812164E0,-6.124909E-2,-1.4496739E-1,-9.813099E-2,-1.0477275E-1,1.6353577E-1,-1.4456148E-2,1.7750666E-1,5.0076835E-2,1.2918448E-1],"split_indices":[7,8,8,8,0,4,11,0,0,0,0,0,0,0,0],"split_type":[0,0,0,0,0,0,0,0,0,0,0,0,0,0,0],"sum_hessian":[7.3804834E2,2.0270328E2,5.3534503E2,1.9253589E2,1.0167391E1,4.45646E2,8.969907E1,1.312264E2,6.1309483E1,4.192959E0,5.9744315E0,4.3261255E2,1.3033435E1,4.2214684E1,4.7484394E1],"tree_param":{"num_deleted":"0","num_feature":"12","num_nodes":"15","size_leaf_vector":"1"}},{"base_weights":[7.056272E-2,4.217773E-1,-9.454923E-3,4.321975E-1,-2.1769213E-2,2.8768774E-2,-3.3708322E-1,-4.6720482E-2,1.3179427E-1,6.054514E-2,-7.0430875E-2,1.2716355E-2,-1.6676947E-1,5.2628882E-2,-1.1297447E-1],"categories":[],"categories_nodes":[],"categories_segments":[],"categories_sizes":[],"default_left":[0,0,0,0,0,0,0,0,0,0,0,0,0,0,0],"id":16,"left_children":[1,3,5,7,9,11,13,-1,-1,-1,-1,-1,-1,-1,-1],"loss_changes":[1.9290377E1,5.980625E-1,7.021463E0,5.892868E-1,2.3194692E-1,4.0234046E0,1.2518525E0,0E0,0E0,0E0,0E0,0E0,0E0,0E0,0E0],"parents":[2147483647,0,0,1,1,2,2,3,3,4,4,5,5,6,6],"right_children":[2,4,6,8,10,12,14,-1,-1,-1,-1,-1,-1,-1,-1],"split_conditions":[-5.570799E-1,5.7754564E-1,1.4187399E0,-2.0417445E0,-7.0165205E-1,5.812164E0,-1.2644321E0,-4.6720482E-2,1.3179427E-1,6.054514E-2,-7.0430875E-2,1.2716355E-2,-1.6676947E-1,5.2628882E-2,-1.1297447E-1],"split_indices":[7,8,7,6,7,4,10,0,0,0,0,0,0,0,0],"split_type":[0,0,0,0,0,0,0,0,0,0,0,0,0,0,0],"sum_hessian":[6.852663E2,1.26362625E2,5.589037E2,1.2348713E2,2.8754933E0,5.013271E2,5.7576576E1,1.227129E0,1.2226E2,1.4285007E0,1.4469926E0,4.9082153E2,1.0505561E1,3.873558E0,5.370302E1],"tree_param":{"num_deleted":"0","num_feature":"12","num_nodes":"15","size_leaf_vector":"1"}},{"base_weights":[-7.056268E-2,-4.2177725E-1,9.454925E-3,-4.3219748E-1,2.1769198E-2,-2.8768767E-2,3.370832E-1,4.6720542E-2,-1.3179426E-1,-6.0545143E-2,7.0430875E-2,-1.2716352E-2,1.6676947E-1,-5.2628886E-2,1.1297446E-1],"categories":[],"categories_nodes":[],"categories_segments":[],"categories_sizes":[],"default_left":[0,0,0,0,0,0,0,0,0,0,0,0,0,0,0],"id":17,"left_children":[1,3,5,7,9,11,13,-1,-1,-1,-1,-1,-1,-1,-1],"loss_changes":[1.9290367E1,5.980606E-1,7.0214615E0,5.892887E-1,2.3194693E-1,4.0234036E0,1.2518525E0,0E0,0E0,0E0,0E0,0E0,0E0,0E0,0E0],"parents":[2147483647,0,0,1,1,2,2,3,3,4,4,5,5,6,6],"right_children":[2,4,6,8,10,12,14,-1,-1,-1,-1,-1,-1,-1,-1],"split_conditions":[-5.570799E-1,5.7754564E-1,1.4187399E0,-2.0417445E0,-7.0165205E-1,5.812164E0,-1.2644321E0,4.6720542E-2,-1.3179426E-1,-6.0545143E-2,7.0430875E-2,-1.2716352E-2,1.6676947E-1,-5.2628886E-2,1.1297446E-1],"split_indices":[7,8,7,6,7,4,10,0,0,0,0,0,0,0,0],"split_type":[0,0,0,0,0,0,0,0,0,0,0,0,0,0,0],"sum_hessian":[6.8526624E2,1.2636257E2,5.589036E2,1.2348708E2,2.8754933E0,5.0132706E2,5.7576572E1,1.2271285E0,1.2225995E2,1.4285007E0,1.4469928E0,4.908215E2,1.0505561E1,3.873558E0,5.3703014E1],"tree_param":{"num_deleted":"0","num_feature":"12","num_nodes":"15","size_leaf_vector":"1"}},{"base_weights":[5.3580113E-2,2.8267035E-1,-3.6768068E-2,3.2410496E-1,-4.340321E-1,-1.2295096E-2,-3.9040673E-1,1.255909E-1,5.806034E-2,-2.1260612E-1,1.2799101E-2,1.06401466E-1,-8.1591895E-3,6.5237144E-3,-1.4309719E-1],"categories":[],"categories_nodes":[],"categories_segments":[],"categories_sizes":[],"default_left":[0,0,0,0,0,0,0,0,0,0,0,0,0,0,0],"id":18,"left_children":[1,3,5,7,9,11,13,-1,-1,-1,-1,-1,-1,-1,-1],"loss_changes":[1.3441257E1,5.594287E0,4.030435E0,2.0689125E0,1.4003006E0,2.4000213E0,1.086133E0,0E0,0E0,0E0,0E0,0E0,0E0,0E0,0E0],"parents":[2147483647,0,0,1,1,2,2,3,3,4,4,5,5,6,6],"right_children":[2,4,6,8,10,12,14,-1,-1,-1,-1,-1,-1,-1,-1],"split_conditions":[-1.9564945E-1,7.9576117E-1,1.8524565E0,-2.5167325E-1,2.0510349E-1,-1.4367843E0,-8.4970003E-1,1.255909E-1,5.806034E-2,-2.1260612E-1,1.2799101E-2,1.06401466E-1,-8.1591895E-3,6.5237144E-3,-1.4309719E-1],"split_indices":[7,8,7,8,6,10,11,0,0,0,0,0,0,0,0],"split_type":[0,0,0,0,0,0,0,0,0,0,0,0,0,0,0],"sum_hessian":[6.479002E2,1.8264641E2,4.652538E2,1.7318205E2,9.464363E0,4.3610843E2,2.9145386E1,9.917467E1,7.400738E1,5.6959167E0,3.7684464E0,1.6129112E1,4.199793E2,5.189835E0,2.3955551E1],"tree_param":{"num_deleted":"0","num_feature":"12","num_nodes":"15","size_leaf_vector":"1"}},{"base_weights":[-5.3580143E-2,-2.8267038E-1,3.6768045E-2,-3.24105E-1,4.340321E-1,1.2295076E-2,3.9040673E-1,-1.255909E-1,-5.806035E-2,2.1260612E-1,-1.2799103E-2,-1.0640147E-1,8.159182E-3,-6.5237437E-3,1.4309719E-1],"categories":[],"categories_nodes":[],"categories_segments":[],"categories_sizes":[],"default_left":[0,0,0,0,0,0,0,0,0,0,0,0,0,0,0],"id":19,"left_children":[1,3,5,7,9,11,13,-1,-1,-1,-1,-1,-1,-1,-1],"loss_changes":[1.34412565E1,5.59429E0,4.030435E0,2.0689087E0,1.4003006E0,2.4000213E0,1.0861335E0,0E0,0E0,0E0,0E0,0E0,0E0,0E0,0E0],"parents":[2147483647,0,0,1,1,2,2,3,3,4,4,5,5,6,6],"right_children":[2,4,6,8,10,12,14,-1,-1,-1,-1,-1,-1,-1,-1],"split_conditions":[-1.9564945E-1,7.9576117E-1,1.8524565E0,-2.5167325E-1,2.0510349E-1,-1.4367843E0,-8.4970003E-1,-1.255909E-1,-5.806035E-2,2.1260612E-1,-1.2799103E-2,-1.0640147E-1,8.159182E-3,-6.5237437E-3,1.4309719E-1],"split_indices":[7,8,7,8,6,10,11,0,0,0,0,0,0,0,0],"split_type":[0,0,0,0,0,0,0,0,0,0,0,0,0,0,0],"sum_hessian":[6.4790027E2,1.8264644E2,4.652538E2,1.7318207E2,9.464363E0,4.3610843E2,2.9145382E1,9.917468E1,7.4007385E1,5.6959167E0,3.7684464E0,1.6129112E1,4.1997934E2,5.189834E0,2.395555E1],"tree_param":{"num_deleted":"0","num_feature":"12","num_nodes":"15","size_leaf_vector":"1"}},{"base_weights":[4.108492E-2,3.5174456E-1,-8.403533E-3,4.3909642E-1,2.261255E-1,6.9790003E-3,-1.5784208E-1,1.4590909E-1,8.019034E-2,8.668915E-2,-5.1807277E-2,2.2968698E-2,-2.4825776E-2],"categories":[],"categories_nodes":[],"categories_segments":[],"categories_sizes":[],"default_left":[0,0,0,0,0,0,0,0,0,0,0,0,0],"id":20,"left_children":[1,3,5,7,9,11,-1,-1,-1,-1,-1,-1,-1],"loss_changes":[9.485605E0,8.3098316E-1,4.248675E0,2.6743126E-1,9.730015E-1,3.2445343E0,0E0,0E0,0E0,0E0,0E0,0E0,0E0],"parents":[2147483647,0,0,1,1,2,2,3,3,4,4,5,5],"right_children":[2,4,6,8,10,12,-1,-1,-1,-1,-1,-1,-1],"split_conditions":[-5.570799E-1,1.1675005E0,5.812164E0,-2.5167325E-1,1.0801916E0,6.2118876E-1,-1.5784208E-1,1.4590909E-1,8.019034E-2,8.668915E-2,-5.1807277E-2,2.2968698E-2,-2.4825776E-2],"split_indices":[7,0,4,8,6,8,0,0,0,0,0,0,0],"split_type":[0,0,0,0,0,0,0,0,0,0,0,0,0],"sum_hessian":[6.1579517E2,8.3778015E1,5.3201715E2,4.794382E1,3.5834198E1,5.1762445E2,1.4392678E1,3.6162994E1,1.1780825E1,3.1194567E1,4.6396327E0,2.916264E2,2.2599808E2],"tree_param":{"num_deleted":"0","num_feature":"12","num_nodes":"13","size_leaf_vector":"1"}},{"base_weights":[-4.1084792E-2,-3.517443E-1,8.403558E-3,-4.3909627E-1,-2.2612508E-1,-6.9789737E-3,1.5784208E-1,-1.4590906E-1,-8.0190286E-2,-8.668904E-2,5.1807452E-2,-2.2968687E-2,2.482578E-2],"categories":[],"categories_nodes":[],"categories_segments":[],"categories_sizes":[],"default_left":[0,0,0,0,0,0,0,0,0,0,0,0,0],"id":21,"left_children":[1,3,5,7,9,11,-1,-1,-1,-1,-1,-1,-1],"loss_changes":[9.485579E0,8.309841E-1,4.2486744E0,2.674322E-1,9.730021E-1,3.2445333E0,0E0,0E0,0E0,0E0,0E0,0E0,0E0],"parents":[2147483647,0,0,1,1,2,2,3,3,4,4,5,5],"right_children":[2,4,6,8,10,12,-1,-1,-1,-1,-1,-1,-1],"split_conditions":[-5.570799E-1,1.1675005E0,5.812164E0,-2.5167325E-1,1.0801916E0,6.2118876E-1,1.5784208E-1,-1.4590906E-1,-8.0190286E-2,-8.668904E-2,5.1807452E-2,-2.2968687E-2,2.482578E-2],"split_indices":[7,0,4,8,6,8,0,0,0,0,0,0,0],"split_type":[0,0,0,0,0,0,0,0,0,0,0,0,0],"sum_hessian":[6.1579504E2,8.3777885E1,5.3201715E2,4.7943737E1,3.583415E1,5.1762445E2,1.4392677E1,3.6162918E1,1.1780818E1,3.1194519E1,4.639628E0,2.916264E2,2.2599808E2],"tree_param":{"num_deleted":"0","num_feature":"12","num_nodes":"13","size_leaf_vector":"1"}},{"base_weights":[3.125166E-2,1.424391E-1,-7.084845E-2,2.6958287E-1,1.2673402E-2,-4.887239E-2,-3.3794972E-1,9.374463E-2,-1.2399321E-1,5.7083793E-2,-3.8209092E-2,-2.490029E-2,4.1097708E-2,9.847088E-2,-1.23856224E-1],"categories":[],"categories_nodes":[],"categories_segments":[],"categories_sizes":[],"default_left":[0,0,0,0,0,0,0,0,0,0,0,0,0,0,0],"id":22,"left_children":[1,3,5,7,9,11,13,-1,-1,-1,-1,-1,-1,-1,-1],"loss_changes":[6.72458E0,4.673458E0,1.7972722E0,4.322237E0,3.5394547E0,1.8298666E0,1.2992709E0,0E0,0E0,0E0,0E0,0E0,0E0,0E0,0E0],"parents":[2147483647,0,0,1,1,2,2,3,3,4,4,5,5,6,6],"right_children":[2,4,6,8,10,12,14,-1,-1,-1,-1,-1,-1,-1,-1],"split_conditions":[2.8625783E-1,1.1675005E0,1.8524565E0,9.2669046E-1,1.0185351E-2,1.3404415E0,-1.2644321E0,9.374463E-2,-1.2399321E-1,5.7083793E-2,-3.8209092E-2,-2.490029E-2,4.1097708E-2,9.847088E-2,-1.23856224E-1],"split_indices":[7,0,7,8,8,11,10,0,0,0,0,0,0,0,0],"split_type":[0,0,0,0,0,0,0,0,0,0,0,0,0,0,0],"sum_hessian":[5.904676E2,2.8246594E2,3.0800165E2,1.4213013E2,1.4033582E2,2.8567996E2,2.2321674E1,1.3423962E2,7.890493E0,6.1710705E1,7.862511E1,2.418287E2,4.385126E1,1.9142863E0,2.0407389E1],"tree_param":{"num_deleted":"0","num_feature":"12","num_nodes":"15","size_leaf_vector":"1"}},{"base_weights":[-3.125163E-2,-1.4243908E-1,7.084849E-2,-2.695828E-1,-1.2673427E-2,4.8872415E-2,3.3794978E-1,-9.374462E-2,1.2399321E-1,-5.708382E-2,3.8209114E-2,2.4900295E-2,-4.1097693E-2,-9.847092E-2,1.2385625E-1],"categories":[],"categories_nodes":[],"categories_segments":[],"categories_sizes":[],"default_left":[0,0,0,0,0,0,0,0,0,0,0,0,0,0,0],"id":23,"left_children":[1,3,5,7,9,11,13,-1,-1,-1,-1,-1,-1,-1,-1],"loss_changes":[6.7245803E0,4.673456E0,1.7972733E0,4.322238E0,3.5394592E0,1.8298664E0,1.2992711E0,0E0,0E0,0E0,0E0,0E0,0E0,0E0,0E0],"parents":[2147483647,0,0,1,1,2,2,3,3,4,4,5,5,6,6],"right_children":[2,4,6,8,10,12,14,-1,-1,-1,-1,-1,-1,-1,-1],"split_conditions":[2.8625783E-1,1.1675005E0,1.8524565E0,9.2669046E-1,1.0185351E-2,1.3404415E0,-1.2644321E0,-9.374462E-2,1.2399321E-1,-5.708382E-2,3.8209114E-2,2.4900295E-2,-4.1097693E-2,-9.847092E-2,1.2385625E-1],"split_indices":[7,0,7,8,8,11,10,0,0,0,0,0,0,0,0],"split_type":[0,0,0,0,0,0,0,0,0,0,0,0,0,0,0],"sum_hessian":[5.904676E2,2.8246594E2,3.0800165E2,1.4213011E2,1.4033583E2,2.8567996E2,2.2321682E1,1.3423961E2,7.890493E0,6.1710728E1,7.862511E1,2.418287E2,4.385126E1,1.9142858E0,2.0407396E1],"tree_param":{"num_deleted":"0","num_feature":"12","num_nodes":"15","size_leaf_vector":"1"}},{"base_weights":[2.410357E-2,2.8227416E-1,-8.073723E-3,3.068087E-1,-2.6784942E-1,3.999824E-3,-4.9379846E-1,1.1143154E-1,3.8121738E-2,-2.0137468E-1,8.1329346E-2,4.6079517E-3,-1.4932385E-1,-2.2934179E-1,1.3018635E-1],"categories":[],"categories_nodes":[],"categories_segments":[],"categories_sizes":[],"default_left":[0,0,0,0,0,0,0,0,0,0,0,0,0,0,0],"id":24,"left_children":[1,3,5,7,9,11,13,-1,-1,-1,-1,-1,-1,-1,-1],"loss_changes":[4.6765313E0,9.241915E-1,2.9417372E0,6.51958E-1,8.7711895E-1,2.8012605E0,3.3869104E0,0E0,0E0,0E0,0E0,0E0,0E0,0E0,0E0],"parents":[2147483647,0,0,1,1,2,2,3,3,4,4,5,5,6,6],"right_children":[2,4,6,8,10,12,14,-1,-1,-1,-1,-1,-1,-1,-1],"split_conditions":[-5.570799E-1,2.5619264E0,2.054959E0,3.706607E-1,-7.498428E-1,5.812164E0,1.3208504E0,1.1143154E-1,3.8121738E-2,-2.0137468E-1,8.1329346E-2,4.6079517E-3,-1.4932385E-1,-2.2934179E-1,1.3018635E-1],"split_indices":[7,3,1,6,7,4,10,0,0,0,0,0,0,0,0],"split_type":[0,0,0,0,0,0,0,0,0,0,0,0,0,0,0],"sum_hessian":[5.616728E2,6.1385025E1,5.0028775E2,5.918765E1,2.1973753E0,4.8912152E2,1.1166215E1,4.2749256E1,1.6438395E1,1.1163275E0,1.0810479E0,4.7924045E2,9.88108E0,8.780483E0,2.3857315E0],"tree_param":{"num_deleted":"0","num_feature":"12","num_nodes":"15","size_leaf_vector":"1"}},{"base_weights":[-2.4103556E-2,-2.822742E-1,8.0737425E-3,-3.0680874E-1,2.678494E-1,-3.999804E-3,4.9379846E-1,-1.1143155E-1,-3.8121745E-2,2.013747E-1,-8.1329346E-2,-4.6079457E-3,1.4932385E-1,2.2934179E-1,-1.3018636E-1],"categories":[],"categories_nodes":[],"categories_segments":[],"categories_sizes":[],"default_left":[0,0,0,0,0,0,0,0,0,0,0,0,0,0,0],"id":25,"left_children":[1,3,5,7,9,11,13,-1,-1,-1,-1,-1,-1,-1,-1],"loss_changes":[4.6765327E0,9.2419195E-1,2.9417367E0,6.51958E-1,8.7711895E-1,2.8012602E0,3.3869104E0,0E0,0E0,0E0,0E0,0E0,0E0,0E0,0E0],"parents":[2147483647,0,0,1,1,2,2,3,3,4,4,5,5,6,6],"right_children":[2,4,6,8,10,12,14,-1,-1,-1,-1,-1,-1,-1,-1],"split_conditions":[-5.570799E-1,2.5619264E0,2.054959E0,3.706607E-1,-7.498428E-1,5.812164E0,1.3208504E0,-1.1143155E-1,-3.8121745E-2,2.013747E-1,-8.1329346E-2,-4.6079457E-3,1.4932385E-1,2.2934179E-1,-1.3018636E-1],"split_indices":[7,3,1,6,7,4,10,0,0,0,0,0,0,0,0],"split_type":[0,0,0,0,0,0,0,0,0,0,0,0,0,0,0],"sum_hessian":[5.616727E2,6.138503E1,5.0028772E2,5.9187653E1,2.1973753E0,4.8912152E2,1.1166215E1,4.274926E1,1.6438395E1,1.1163274E0,1.081048E0,4.7924042E2,9.881079E0,8.780483E0,2.3857312E0],"tree_param":{"num_deleted":"0","num_feature":"12","num_nodes":"15","size_leaf_vector":"1"}},{"base_weights":[1.7277438E-2,9.9841535E-2,-5.901956E-2,2.4349062E-1,-3.0808698E-2,6.424303E-2,-2.3958531E-1,1.0620941E-1,-2.2188008E-2,5.1588506E-2,-3.0429978E-2,2.8592905E-2,-1.30614E-1,2.3360023E-1,-8.196211E-2],"categories":[],"categories_nodes":[],"categories_segments":[],"categories_sizes":[],"default_left":[0,0,0,0,0,0,0,0,0,0,0,0,0,0,0],"id":26,"left_children":[1,3,5,7,9,11,13,-1,-1,-1,-1,-1,-1,-1,-1],"loss_changes":[3.4809837E0,4.986924E0,6.4106607E0,4.4646816E0,2.0199313E0,2.7042854E0,4.2108703E0,0E0,0E0,0E0,0E0,0E0,0E0,0E0,0E0],"parents":[2147483647,0,0,1,1,2,2,3,3,4,4,5,5,6,6],"right_children":[2,4,6,8,10,12,14,-1,-1,-1,-1,-1,-1,-1,-1],"split_conditions":[6.3501544E-2,1.1675005E0,1.1438526E-1,7.5211805E-1,9.747155E-2,1.9378145E0,-1.4629396E0,1.0620941E-1,-2.2188008E-2,5.1588506E-2,-3.0429978E-2,2.8592905E-2,-1.30614E-1,2.3360023E-1,-8.196211E-2],"split_indices":[1,0,10,8,8,1,11,0,0,0,0,0,0,0,0],"split_type":[0,0,0,0,0,0,0,0,0,0,0,0,0,0,0],"sum_hessian":[5.506549E2,2.643175E2,2.8633737E2,1.25484474E2,1.3883304E2,1.705537E2,1.1578368E2,9.298913E1,3.2495346E1,3.549329E1,1.0333975E2,1.6133131E2,9.222373E0,2.9925592E0,1.1279112E2],"tree_param":{"num_deleted":"0","num_feature":"12","num_nodes":"15","size_leaf_vector":"1"}},{"base_weights":[-1.7277427E-2,-9.9841535E-2,5.901958E-2,-2.4349062E-1,3.0808706E-2,-6.424302E-2,2.3958534E-1,-1.0620941E-1,2.2188013E-2,-5.1588517E-2,3.0429987E-2,-2.8592901E-2,1.30614E-1,-2.3360021E-1,8.1962116E-2],"categories":[],"categories_nodes":[],"categories_segments":[],"categories_sizes":[],"default_left":[0,0,0,0,0,0,0,0,0,0,0,0,0,0,0],"id":27,"left_children":[1,3,5,7,9,11,13,-1,-1,-1,-1,-1,-1,-1,-1],"loss_changes":[3.4809842E0,4.986924E0,6.4106617E0,4.4646816E0,2.0199323E0,2.7042859E0,4.2108684E0,0E0,0E0,0E0,0E0,0E0,0E0,0E0,0E0],"parents":[2147483647,0,0,1,1,2,2,3,3,4,4,5,5,6,6],"right_children":[2,4,6,8,10,12,14,-1,-1,-1,-1,-1,-1,-1,-1],"split_conditions":[6.3501544E-2,1.1675005E0,1.1438526E-1,7.5211805E-1,9.747155E-2,1.9378145E0,-1.4629396E0,-1.0620941E-1,2.2188013E-2,-5.1588517E-2,3.0429987E-2,-2.8592901E-2,1.30614E-1,-2.3360021E-1,8.1962116E-2],"split_indices":[1,0,10,8,8,1,11,0,0,0,0,0,0,0,0],"split_type":[0,0,0,0,0,0,0,0,0,0,0,0,0,0,0],"sum_hessian":[5.506549E2,2.6431754E2,2.8633737E2,1.2548448E2,1.3883304E2,1.705537E2,1.1578368E2,9.2989136E1,3.2495346E1,3.549329E1,1.0333975E2,1.6133131E2,9.222372E0,2.992559E0,1.1279112E2],"tree_param":{"num_deleted":"0","num_feature":"12","num_nodes":"15","size_leaf_vector":"1"}},{"base_weights":[1.3498886E-2,2.4318395E-2,-1.6397387E-1,2.3975025E-1,2.609992E-3,1.0003566E-1,9.709837E-3,6.989477E-2,-5.687559E-3],"categories":[],"categories_nodes":[],"categories_segments":[],"categories_sizes":[],"default_left":[0,0,0,0,0,0,0,0,0],"id":28,"left_children":[1,3,-1,5,7,-1,-1,-1,-1],"loss_changes":[3.2700288E0,2.469632E0,0E0,9.2861104E-1,2.3937368E0,0E0,0E0,0E0,0E0],"parents":[2147483647,0,0,1,1,3,3,4,4],"right_children":[2,4,-1,6,8,-1,-1,-1,-1],"split_conditions":[5.812164E0,-5.570799E-1,-1.6397387E-1,3.706607E-1,-1.1782559E0,1.0003566E-1,9.709837E-3,6.989477E-2,-5.687559E-3],"split_indices":[4,7,0,6,10,0,0,0,0],"split_type":[0,0,0,0,0,0,0,0,0],"sum_hessian":[5.364353E2,5.272074E2,9.227932E0,4.73424E1,4.79865E2,3.2190113E1,1.5152289E1,4.024181E1,4.396232E2],"tree_param":{"num_deleted":"0","num_feature":"12","num_nodes":"9","size_leaf_vector":"1"}},{"base_weights":[-1.3498914E-2,-2.4318425E-2,1.6397387E-1,-2.3975055E-1,-2.6099705E-3,-1.0003575E-1,-9.709829E-3,-6.989476E-2,5.687565E-3],"categories":[],"categories_nodes":[],"categories_segments":[],"categories_sizes":[],"default_left":[0,0,0,0,0,0,0,0,0],"id":29,"left_children":[1,3,-1,5,7,-1,-1,-1,-1],"loss_changes":[3.2700295E0,2.4696412E0,0E0,9.286139E-1,2.3937368E0,0E0,0E0,0E0,0E0],"parents":[2147483647,0,0,1,1,3,3,4,4],"right_children":[2,4,-1,6,8,-1,-1,-1,-1],"split_conditions":[5.812164E0,-5.570799E-1,1.6397387E-1,3.706607E-1,-1.1782559E0,-1.0003575E-1,-9.709829E-3,-6.989476E-2,5.687565E-3],"split_indices":[4,7,0,6,10,0,0,0,0],"split_type":[0,0,0,0,0,0,0,0,0],"sum_hessian":[5.3643536E2,5.2720746E2,9.227933E0,4.7342453E1,4.79865E2,3.2190163E1,1.5152288E1,4.0241806E1,4.3962317E2],"tree_param":{"num_deleted":"0","num_feature":"12","num_nodes":"9","size_leaf_vector":"1"}},{"base_weights":[9.830054E-3,1.8108362E-2,-1.5600736E-1,2.9053077E-1,3.8497995E-3,1.4419231E-1,8.950011E-3,7.937232E-3,-5.9420593E-2],"categories":[],"categories_nodes":[],"categories_segments":[],"categories_sizes":[],"default_left":[0,0,0,0,0,0,0,0,0],"id":30,"left_children":[1,3,-1,5,7,-1,-1,-1,-1],"loss_changes":[2.3311317E0,2.0270345E0,0E0,1.2720628E0,2.27481E0,0E0,0E0,0E0,0E0],"parents":[2147483647,0,0,1,1,3,3,4,4],"right_children":[2,4,-1,6,8,-1,-1,-1,-1],"split_conditions":[5.812164E0,-9.93606E-1,-1.5600736E-1,1.1675005E0,1.5863808E0,1.4419231E-1,8.950011E-3,7.937232E-3,-5.9420593E-2],"split_indices":[4,8,0,0,1,0,0,0,0],"split_type":[0,0,0,0,0,0,0,0,0],"sum_hessian":[5.2831055E2,5.211343E2,7.17624E0,2.4955803E1,4.961785E2,1.3943795E1,1.1012007E1,4.469995E2,4.9178978E1],"tree_param":{"num_deleted":"0","num_feature":"12","num_nodes":"9","size_leaf_vector":"1"}},{"base_weights":[-9.830046E-3,-1.8108353E-2,1.5600736E-1,-2.9053074E-1,-3.8497958E-3,-1.441923E-1,-8.9500025E-3,-7.937231E-3,5.9420593E-2],"categories":[],"categories_nodes":[],"categories_segments":[],"categories_sizes":[],"default_left":[0,0,0,0,0,0,0,0,0],"id":31,"left_children":[1,3,-1,5,7,-1,-1,-1,-1],"loss_changes":[2.3311312E0,2.027034E0,0E0,1.2720623E0,2.2748098E0,0E0,0E0,0E0,0E0],"parents":[2147483647,0,0,1,1,3,3,4,4],"right_children":[2,4,-1,6,8,-1,-1,-1,-1],"split_conditions":[5.812164E0,-9.93606E-1,1.5600736E-1,1.1675005E0,1.5863808E0,-1.441923E-1,-8.9500025E-3,-7.937231E-3,5.9420593E-2],"split_indices":[4,8,0,0,1,0,0,0,0],"split_type":[0,0,0,0,0,0,0,0,0],"sum_hessian":[5.2831055E2,5.211343E2,7.17624E0,2.4955797E1,4.961785E2,1.3943791E1,1.1012006E1,4.469995E2,4.917898E1],"tree_param":{"num_deleted":"0","num_feature":"12","num_nodes":"9","size_leaf_vector":"1"}},{"base_weights":[6.902981E-3,2.6931707E-3,2.7441645E-1,1.1879514E-2,-4.5780936E-1,3.473714E-2,-8.659791E-3,3.1228296E-2,-2.1941286E-1],"categories":[],"categories_nodes":[],"categories_segments":[],"categories_sizes":[],"default_left":[0,0,0,0,0,0,0,0,0],"id":32,"left_children":[1,3,-1,5,7,-1,-1,-1,-1],"loss_changes":[1.9976043E0,2.2133615E0,0E0,2.1740344E0,1.6491785E0,0E0,0E0,0E0,0E0],"parents":[2147483647,0,0,1,1,3,3,4,4],"right_children":[2,4,-1,6,8,-1,-1,-1,-1],"split_conditions":[3.6131318E0,2.9999287E0,2.7441645E-1,-5.2222127E-1,2.8209182E-2,3.473714E-2,-8.659791E-3,3.1228296E-2,-2.1941286E-1],"split_indices":[3,3,0,1,10,0,0,0,0],"split_type":[0,0,0,0,0,0,0,0,0],"sum_hessian":[5.2233905E2,5.2092633E2,1.4127156E0,5.11693E2,9.233314E0,1.4361017E2,3.6808282E2,3.226207E0,6.0071073E0],"tree_param":{"num_deleted":"0","num_feature":"12","num_nodes":"9","size_leaf_vector":"1"}},{"base_weights":[-6.9029746E-3,-2.693164E-3,-2.7441648E-1,-1.1879507E-2,4.5780942E-1,-3.473714E-2,8.659794E-3,-3.1228287E-2,2.1941286E-1],"categories":[],"categories_nodes":[],"categories_segments":[],"categories_sizes":[],"default_left":[0,0,0,0,0,0,0,0,0],"id":33,"left_children":[1,3,-1,5,7,-1,-1,-1,-1],"loss_changes":[1.9976046E0,2.2133615E0,0E0,2.1740348E0,1.6491787E0,0E0,0E0,0E0,0E0],"parents":[2147483647,0,0,1,1,3,3,4,4],"right_children":[2,4,-1,6,8,-1,-1,-1,-1],"split_conditions":[3.6131318E0,2.9999287E0,-2.7441648E-1,-5.2222127E-1,2.8209182E-2,-3.473714E-2,8.659794E-3,-3.1228287E-2,2.1941286E-1],"split_indices":[3,3,0,1,10,0,0,0,0],"split_type":[0,0,0,0,0,0,0,0,0],"sum_hessian":[5.2233905E2,5.2092633E2,1.4127157E0,5.11693E2,9.233314E0,1.4361017E2,3.6808282E2,3.2262068E0,6.007107E0],"tree_param":{"num_deleted":"0","num_feature":"12","num_nodes":"9","size_leaf_vector":"1"}},{"base_weights":[5.1258635E-3,2.3545245E-2,-1.7113744E-1,-5.320289E-1,2.9162789E-2,1.8367763E-1,-2.635574E-1,-5.2234186E-3,-2.9055527E-1,1.3593766E-1,6.1831106E-3,-1.203733E-1,1.0956651E-1,-1.2356789E-1,-1.3595658E-2],"categories":[],"categories_nodes":[],"categories_segments":[],"categories_sizes":[],"default_left":[0,0,0,0,0,0,0,0,0,0,0,0,0,0,0],"id":34,"left_children":[1,3,5,7,9,11,13,-1,-1,-1,-1,-1,-1,-1,-1],"loss_changes":[1.6958256E0,1.4906869E0,1.669065E0,1.0575976E0,1.690785E0,1.2936287E0,1.2639334E0,0E0,0E0,0E0,0E0,0E0,0E0,0E0,0E0],"parents":[2147483647,0,0,1,1,2,2,3,3,4,4,5,5,6,6],"right_children":[2,4,6,8,10,12,14,-1,-1,-1,-1,-1,-1,-1,-1],"split_conditions":[1.3194784E0,-1.9234895E0,-8.7365496E-1,1.806461E-1,-1.1112733E0,-1.4414299E-1,6.4922434E-1,-5.2234186E-3,-2.9055527E-1,1.3593766E-1,6.1831106E-3,-1.203733E-1,1.0956651E-1,-1.2356789E-1,-1.3595658E-2],"split_indices":[8,6,1,1,7,10,1,0,0,0,0,0,0,0,0],"split_type":[0,0,0,0,0,0,0,0,0,0,0,0,0,0,0],"sum_hessian":[5.20088E2,4.716657E2,4.8422287E1,3.7833614E0,4.6788232E2,9.802292E0,3.8619995E1,2.213522E0,1.5698396E0,8.223883E0,4.5965845E2,2.0351164E0,7.767176E0,2.2463991E1,1.6156004E1],"tree_param":{"num_deleted":"0","num_feature":"12","num_nodes":"15","size_leaf_vector":"1"}},{"base_weights":[-5.12588E-3,-2.354526E-2,1.7113744E-1,5.320288E-1,-2.9162802E-2,-1.8367766E-1,2.635574E-1,5.223394E-3,2.9055527E-1,-1.3593766E-1,-6.1831134E-3,1.203733E-1,-1.0956652E-1,1.2356789E-1,1.3595645E-2],"categories":[],"categories_nodes":[],"categories_segments":[],"categories_sizes":[],"default_left":[0,0,0,0,0,0,0,0,0,0,0,0,0,0,0],"id":35,"left_children":[1,3,5,7,9,11,13,-1,-1,-1,-1,-1,-1,-1,-1],"loss_changes":[1.6958255E0,1.4906864E0,1.6690654E0,1.0575982E0,1.6907861E0,1.2936288E0,1.2639334E0,0E0,0E0,0E0,0E0,0E0,0E0,0E0,0E0],"parents":[2147483647,0,0,1,1,2,2,3,3,4,4,5,5,6,6],"right_children":[2,4,6,8,10,12,14,-1,-1,-1,-1,-1,-1,-1,-1],"split_conditions":[1.3194784E0,-1.9234895E0,-8.7365496E-1,1.806461E-1,-1.1112733E0,-1.4414299E-1,6.4922434E-1,5.223394E-3,2.9055527E-1,-1.3593766E-1,-6.1831134E-3,1.203733E-1,-1.0956652E-1,1.2356789E-1,1.3595645E-2],"split_indices":[8,6,1,1,7,10,1,0,0,0,0,0,0,0,0],"split_type":[0,0,0,0,0,0,0,0,0,0,0,0,0,0,0],"sum_hessian":[5.20088E2,4.716657E2,4.8422287E1,3.783362E0,4.6788235E2,9.802292E0,3.8619995E1,2.2135224E0,1.5698396E0,8.223887E0,4.5965845E2,2.0351162E0,7.7671757E0,2.2463991E1,1.6156002E1],"tree_param":{"num_deleted":"0","num_feature":"12","num_nodes":"15","size_leaf_vector":"1"}},{"base_weights":[2.6253315E-3,8.982749E-3,-1.4844635E-1,6.154387E-2,-4.96578E-2,2.986526E-2,-8.089214E-2,-2.953489E-2,7.55181E-2],"categories":[],"categories_nodes":[],"categories_segments":[],"categories_sizes":[],"default_left":[0,0,0,0,0,0,0,0,0],"id":36,"left_children":[1,3,-1,5,7,-1,-1,-1,-1],"loss_changes":[1.6325086E0,1.5728049E0,0E0,3.413014E0,3.572806E0,0E0,0E0,0E0,0E0],"parents":[2147483647,0,0,1,1,3,3,4,4],"right_children":[2,4,-1,6,8,-1,-1,-1,-1],"split_conditions":[5.812164E0,1.1675005E0,-1.4844635E-1,1.6032585E0,1.3404415E0,2.986526E-2,-8.089214E-2,-2.953489E-2,7.55181E-2],"split_indices":[4,0,0,11,11,0,0,0,0],"split_type":[0,0,0,0,0,0,0,0,0],"sum_hessian":[5.138069E2,5.082928E2,5.514092E0,2.6801453E2,2.4027824E2,2.4105077E2,2.6963776E1,2.0737862E2,3.2899624E1],"tree_param":{"num_deleted":"0","num_feature":"12","num_nodes":"9","size_leaf_vector":"1"}},{"base_weights":[-2.625336E-3,-8.982752E-3,1.4844635E-1,-6.1543874E-2,4.96578E-2,-2.9865261E-2,8.089214E-2,2.9534886E-2,-7.551809E-2],"categories":[],"categories_nodes":[],"categories_segments":[],"categories_sizes":[],"default_left":[0,0,0,0,0,0,0,0,0],"id":37,"left_children":[1,3,-1,5,7,-1,-1,-1,-1],"loss_changes":[1.6325085E0,1.572805E0,0E0,3.4130147E0,3.572806E0,0E0,0E0,0E0,0E0],"parents":[2147483647,0,0,1,1,3,3,4,4],"right_children":[2,4,-1,6,8,-1,-1,-1,-1],"split_conditions":[5.812164E0,1.1675005E0,1.4844635E-1,1.6032585E0,1.3404415E0,-2.9865261E-2,8.089214E-2,2.9534886E-2,-7.551809E-2],"split_indices":[4,0,0,11,11,0,0,0,0],"split_type":[0,0,0,0,0,0,0,0,0],"sum_hessian":[5.138069E2,5.082928E2,5.5140915E0,2.6801456E2,2.4027824E2,2.4105077E2,2.6963776E1,2.0737862E2,3.2899624E1],"tree_param":{"num_deleted":"0","num_feature":"12","num_nodes":"9","size_leaf_vector":"1"}},{"base_weights":[1.3875989E-3,2.5962478E-1,-1.0132259E-2,-9.504102E-2,4.3707886E-1,5.1129263E-2,-6.4303525E-2,1.2865625E-1,-1.4579055E-1,1.5401828E-1,-8.5600674E-2,4.910659E-3,1.0680545E-1,-8.058338E-3,-1.15727626E-1],"categories":[],"categories_nodes":[],"categories_segments":[],"categories_sizes":[],"default_left":[0,0,0,0,0,0,0,0,0,0,0,0,0,0,0],"id":38,"left_children":[1,3,5,7,9,11,13,-1,-1,-1,-1,-1,-1,-1,-1],"loss_changes":[1.5312521E0,1.4249685E0,1.6389203E0,1.8779377E0,9.6405387E-1,2.4513686E0,3.1432366E0,0E0,0E0,0E0,0E0,0E0,0E0,0E0,0E0],"parents":[2147483647,0,0,1,1,2,2,3,3,4,4,5,5,6,6],"right_children":[2,4,6,8,10,12,14,-1,-1,-1,-1,-1,-1,-1,-1],"split_conditions":[-1.4367843E0,-4.9927738E-1,2.635657E-2,7.7714357E-3,1.5151213E0,-1.4885475E-1,1.4349571E0,1.2865625E-1,-1.4579055E-1,1.5401828E-1,-8.5600674E-2,4.910659E-3,1.0680545E-1,-8.058338E-3,-1.15727626E-1],"split_indices":[10,11,11,6,7,11,6,0,0,0,0,0,0,0,0],"split_type":[0,0,0,0,0,0,0,0,0,0,0,0,0,0,0],"sum_hessian":[5.128473E2,2.098119E1,4.9186612E2,7.1517925E0,1.3829396E1,2.3085341E2,2.6101273E2,3.0146885E0,4.137104E0,1.2769745E1,1.0596519E0,2.0817325E2,2.2680159E1,2.3475279E2,2.625993E1],"tree_param":{"num_deleted":"0","num_feature":"12","num_nodes":"15","size_leaf_vector":"1"}},{"base_weights":[-1.3876144E-3,-2.596248E-1,1.0132244E-2,9.504097E-2,-4.370789E-1,-5.112928E-2,6.430351E-2,-1.2865625E-1,1.4579053E-1,-1.5401828E-1,8.560066E-2,-4.910666E-3,-1.06805444E-1,8.058336E-3,1.1572761E-1],"categories":[],"categories_nodes":[],"categories_segments":[],"categories_sizes":[],"default_left":[0,0,0,0,0,0,0,0,0,0,0,0,0,0,0],"id":39,"left_children":[1,3,5,7,9,11,13,-1,-1,-1,-1,-1,-1,-1,-1],"loss_changes":[1.5312523E0,1.4249684E0,1.6389205E0,1.8779373E0,9.6405387E-1,2.4513679E0,3.143237E0,0E0,0E0,0E0,0E0,0E0,0E0,0E0,0E0],"parents":[2147483647,0,0,1,1,2,2,3,3,4,4,5,5,6,6],"right_children":[2,4,6,8,10,12,14,-1,-1,-1,-1,-1,-1,-1,-1],"split_conditions":[-1.4367843E0,-4.9927738E-1,2.635657E-2,7.7714357E-3,1.5151213E0,-1.4885475E-1,1.4349571E0,-1.2865625E-1,1.4579053E-1,-1.5401828E-1,8.560066E-2,-4.910666E-3,-1.06805444E-1,8.058336E-3,1.1572761E-1],"split_indices":[10,11,11,6,7,11,6,0,0,0,0,0,0,0,0],"split_type":[0,0,0,0,0,0,0,0,0,0,0,0,0,0,0],"sum_hessian":[5.1284735E2,2.098119E1,4.9186612E2,7.151793E0,1.3829396E1,2.3085341E2,2.6101273E2,3.014689E0,4.1371045E0,1.2769745E1,1.0596516E0,2.0817325E2,2.2680159E1,2.3475279E2,2.625993E1],"tree_param":{"num_deleted":"0","num_feature":"12","num_nodes":"15","size_leaf_vector":"1"}}]},"name":"gbtree"},"learner_model_param":{"base_score":"5E-1","boost_from_average":"1","num_class":"2","num_feature":"12","num_target":"1"},"objective":{"name":"multi:softprob","softmax_multiclass_param":{"num_class":"2"}}},"version":[3,0,0]}